<?xml version="1.0" encoding="UTF-8" standalone="yes"?>
<PMML xmlns="http://www.dmg.org/PMML-4_4" xmlns:data="http://jpmml.org/jpmml-model/InlineTable" version="4.4">
	<Header>
		<Application name="JPMML-SkLearn library" version="1.7.2"/>
		<Timestamp>2022-08-23T18:12:49Z</Timestamp>
	</Header>
	<MiningBuildTask>
		<Extension name="repr">PMMLPipeline(steps=[('scaler', StandardScaler()),
       ('regressor', XGBClassifier(base_score=0.5, booster='gbtree', colsample_bylevel=0.9,
              colsample_bynode=0.6, colsample_bytree=0.7, gamma=6, gpu_id=-1,
              importance_type='gain', interaction_constraints='',
              learning_rate=0.300000012, max_delta_step=0, max_depth=3,
              min_child_weight=13, missing=nan, monotone_constraints='()',
              n_estimators=100, n_jobs=-1, num_parallel_tree=1, random_state=0,
              reg_alpha=0, reg_lambda=1, scale_pos_weight=1, subsample=1.0,
              tree_method='exact', validate_parameters=1, verbosity=None))])</Extension>
	</MiningBuildTask>
	<DataDictionary>
		<DataField name="deposit_Tak" optype="categorical" dataType="integer">
			<Value value="0"/>
			<Value value="1"/>
		</DataField>
		<DataField name="age" optype="continuous" dataType="double"/>
		<DataField name="day_of_year" optype="continuous" dataType="double"/>
		<DataField name="log_duration" optype="continuous" dataType="double"/>
		<DataField name="log_campaign" optype="continuous" dataType="double"/>
		<DataField name="log_pdays" optype="continuous" dataType="double"/>
		<DataField name="job_Bezrobotny" optype="continuous" dataType="double"/>
		<DataField name="job_Pracownik zarządzający" optype="continuous" dataType="double"/>
		<DataField name="job_Samozatrudniony" optype="continuous" dataType="double"/>
		<DataField name="job_Student" optype="continuous" dataType="double"/>
		<DataField name="education_Wykształcenie średnie" optype="continuous" dataType="double"/>
		<DataField name="default_Tak" optype="continuous" dataType="double"/>
		<DataField name="housing_Tak" optype="continuous" dataType="double"/>
		<DataField name="contact_Nie podano" optype="continuous" dataType="double"/>
		<DataField name="contact_Telefoniczny" optype="continuous" dataType="double"/>
		<DataField name="poutcome_Nie podano" optype="continuous" dataType="double"/>
		<DataField name="poutcome_Porażka" optype="continuous" dataType="double"/>
	</DataDictionary>
	<MiningModel functionName="classification" algorithmName="XGBoost (GBTree)" x-mathContext="float">
		<MiningSchema>
			<MiningField name="deposit_Tak" usageType="target"/>
			<MiningField name="age"/>
			<MiningField name="day_of_year"/>
			<MiningField name="log_duration"/>
			<MiningField name="log_campaign"/>
			<MiningField name="log_pdays"/>
			<MiningField name="job_Bezrobotny"/>
			<MiningField name="job_Pracownik zarządzający"/>
			<MiningField name="job_Samozatrudniony"/>
			<MiningField name="job_Student"/>
			<MiningField name="education_Wykształcenie średnie"/>
			<MiningField name="default_Tak"/>
			<MiningField name="housing_Tak"/>
			<MiningField name="contact_Nie podano"/>
			<MiningField name="contact_Telefoniczny"/>
			<MiningField name="poutcome_Nie podano"/>
			<MiningField name="poutcome_Porażka"/>
		</MiningSchema>
		<Segmentation multipleModelMethod="modelChain" missingPredictionTreatment="returnMissing">
			<Segment id="1">
				<True/>
				<MiningModel functionName="regression" x-mathContext="float">
					<MiningSchema>
						<MiningField name="job_Samozatrudniony"/>
						<MiningField name="job_Student"/>
						<MiningField name="default_Tak"/>
						<MiningField name="age"/>
						<MiningField name="day_of_year"/>
						<MiningField name="log_duration"/>
						<MiningField name="log_campaign"/>
						<MiningField name="log_pdays"/>
						<MiningField name="job_Bezrobotny"/>
						<MiningField name="job_Pracownik zarządzający"/>
						<MiningField name="education_Wykształcenie średnie"/>
						<MiningField name="housing_Tak"/>
						<MiningField name="contact_Nie podano"/>
						<MiningField name="contact_Telefoniczny"/>
						<MiningField name="poutcome_Nie podano"/>
						<MiningField name="poutcome_Porażka"/>
					</MiningSchema>
					<Output>
						<OutputField name="xgbValue" optype="continuous" dataType="float" isFinalResult="false"/>
					</Output>
					<Targets>
						<Target rescaleConstant="6.4429035E-4"/>
					</Targets>
					<LocalTransformations>
						<DerivedField name="standardScaler(age)" optype="continuous" dataType="double">
							<Apply function="/">
								<Apply function="-">
									<FieldRef field="age"/>
									<Constant dataType="double">41.103545373096125</Constant>
								</Apply>
								<Constant dataType="double">11.895192892518907</Constant>
							</Apply>
						</DerivedField>
						<DerivedField name="standardScaler(day_of_year)" optype="continuous" dataType="double">
							<Apply function="/">
								<Apply function="-">
									<FieldRef field="day_of_year"/>
									<Constant dataType="double">172.0227825419173</Constant>
								</Apply>
								<Constant dataType="double">78.88474512559256</Constant>
							</Apply>
						</DerivedField>
						<DerivedField name="standardScaler(log_duration)" optype="continuous" dataType="double">
							<Apply function="/">
								<Apply function="-">
									<FieldRef field="log_duration"/>
									<Constant dataType="double">5.5128272572076495</Constant>
								</Apply>
								<Constant dataType="double">0.9636733166023981</Constant>
							</Apply>
						</DerivedField>
						<DerivedField name="standardScaler(log_campaign)" optype="continuous" dataType="double">
							<Apply function="/">
								<Apply function="-">
									<FieldRef field="log_campaign"/>
									<Constant dataType="double">0.6358963669551441</Constant>
								</Apply>
								<Constant dataType="double">0.6844356372662092</Constant>
							</Apply>
						</DerivedField>
						<DerivedField name="standardScaler(log_pdays)" optype="continuous" dataType="double">
							<Apply function="/">
								<Apply function="-">
									<FieldRef field="log_pdays"/>
									<Constant dataType="double">1.5701820648941596</Constant>
								</Apply>
								<Constant dataType="double">2.700912762268433</Constant>
							</Apply>
						</DerivedField>
						<DerivedField name="standardScaler(job_Bezrobotny)" optype="continuous" dataType="double">
							<Apply function="/">
								<Apply function="-">
									<FieldRef field="job_Bezrobotny"/>
									<Constant dataType="double">0.03225393574811212</Constant>
								</Apply>
								<Constant dataType="double">0.17667376538940008</Constant>
							</Apply>
						</DerivedField>
						<DerivedField name="standardScaler(job_Pracownik zarządzający)" optype="continuous" dataType="double">
							<Apply function="/">
								<Apply function="-">
									<FieldRef field="job_Pracownik zarządzający"/>
									<Constant dataType="double">0.23217714066299758</Constant>
								</Apply>
								<Constant dataType="double">0.4222214063930822</Constant>
							</Apply>
						</DerivedField>
						<DerivedField name="standardScaler(education_Wykształcenie średnie)" optype="continuous" dataType="double">
							<Apply function="/">
								<Apply function="-">
									<FieldRef field="education_Wykształcenie średnie"/>
									<Constant dataType="double">0.49136055292461284</Constant>
								</Apply>
								<Constant dataType="double">0.4999253543822633</Constant>
							</Apply>
						</DerivedField>
						<DerivedField name="standardScaler(housing_Tak)" optype="continuous" dataType="double">
							<Apply function="/">
								<Apply function="-">
									<FieldRef field="housing_Tak"/>
									<Constant dataType="double">0.4785613720721874</Constant>
								</Apply>
								<Constant dataType="double">0.49954017379243165</Constant>
							</Apply>
						</DerivedField>
						<DerivedField name="standardScaler(contact_Nie podano)" optype="continuous" dataType="double">
							<Apply function="/">
								<Apply function="-">
									<FieldRef field="contact_Nie podano"/>
									<Constant dataType="double">0.2059388199155254</Constant>
								</Apply>
								<Constant dataType="double">0.4043859819124869</Constant>
							</Apply>
						</DerivedField>
						<DerivedField name="standardScaler(contact_Telefoniczny)" optype="continuous" dataType="double">
							<Apply function="/">
								<Apply function="-">
									<FieldRef field="contact_Telefoniczny"/>
									<Constant dataType="double">0.06873160117752464</Constant>
								</Apply>
								<Constant dataType="double">0.25299717029464647</Constant>
							</Apply>
						</DerivedField>
						<DerivedField name="standardScaler(poutcome_Nie podano)" optype="continuous" dataType="double">
							<Apply function="/">
								<Apply function="-">
									<FieldRef field="poutcome_Nie podano"/>
									<Constant dataType="double">0.7440163829514911</Constant>
								</Apply>
								<Constant dataType="double">0.43641265432073717</Constant>
							</Apply>
						</DerivedField>
						<DerivedField name="standardScaler(poutcome_Porażka)" optype="continuous" dataType="double">
							<Apply function="/">
								<Apply function="-">
									<FieldRef field="poutcome_Porażka"/>
									<Constant dataType="double">0.11135287341610137</Constant>
								</Apply>
								<Constant dataType="double">0.3145686109548743</Constant>
							</Apply>
						</DerivedField>
						<DerivedField name="float(standardScaler(age))" optype="continuous" dataType="float">
							<FieldRef field="standardScaler(age)"/>
						</DerivedField>
						<DerivedField name="float(standardScaler(day_of_year))" optype="continuous" dataType="float">
							<FieldRef field="standardScaler(day_of_year)"/>
						</DerivedField>
						<DerivedField name="float(standardScaler(log_duration))" optype="continuous" dataType="float">
							<FieldRef field="standardScaler(log_duration)"/>
						</DerivedField>
						<DerivedField name="float(standardScaler(log_campaign))" optype="continuous" dataType="float">
							<FieldRef field="standardScaler(log_campaign)"/>
						</DerivedField>
						<DerivedField name="float(standardScaler(log_pdays))" optype="continuous" dataType="float">
							<FieldRef field="standardScaler(log_pdays)"/>
						</DerivedField>
						<DerivedField name="float(standardScaler(job_Bezrobotny))" optype="continuous" dataType="float">
							<FieldRef field="standardScaler(job_Bezrobotny)"/>
						</DerivedField>
						<DerivedField name="float(standardScaler(job_Pracownik zarządzający))" optype="continuous" dataType="float">
							<FieldRef field="standardScaler(job_Pracownik zarządzający)"/>
						</DerivedField>
						<DerivedField name="float(standardScaler(education_Wykształcenie średnie))" optype="continuous" dataType="float">
							<FieldRef field="standardScaler(education_Wykształcenie średnie)"/>
						</DerivedField>
						<DerivedField name="float(standardScaler(housing_Tak))" optype="continuous" dataType="float">
							<FieldRef field="standardScaler(housing_Tak)"/>
						</DerivedField>
						<DerivedField name="float(standardScaler(contact_Nie podano))" optype="continuous" dataType="float">
							<FieldRef field="standardScaler(contact_Nie podano)"/>
						</DerivedField>
						<DerivedField name="float(standardScaler(contact_Telefoniczny))" optype="continuous" dataType="float">
							<FieldRef field="standardScaler(contact_Telefoniczny)"/>
						</DerivedField>
						<DerivedField name="float(standardScaler(poutcome_Nie podano))" optype="continuous" dataType="float">
							<FieldRef field="standardScaler(poutcome_Nie podano)"/>
						</DerivedField>
						<DerivedField name="float(standardScaler(poutcome_Porażka))" optype="continuous" dataType="float">
							<FieldRef field="standardScaler(poutcome_Porażka)"/>
						</DerivedField>
					</LocalTransformations>
					<Segmentation multipleModelMethod="sum">
						<Segment id="1">
							<True/>
							<TreeModel functionName="regression" noTrueChildStrategy="returnLastPrediction" x-mathContext="float">
								<MiningSchema>
									<MiningField name="float(standardScaler(day_of_year))"/>
									<MiningField name="float(standardScaler(log_duration))"/>
									<MiningField name="float(standardScaler(log_pdays))"/>
								</MiningSchema>
								<Node score="-0.37122303">
									<True/>
									<Node score="-0.115240805">
										<SimplePredicate field="float(standardScaler(log_duration))" operator="greaterOrEqual" value="-0.18941043"/>
										<Node score="0.25967214">
											<SimplePredicate field="float(standardScaler(log_pdays))" operator="greaterOrEqual" value="-0.082789965"/>
											<Node score="0.44466576">
												<SimplePredicate field="float(standardScaler(day_of_year))" operator="greaterOrEqual" value="-0.424959"/>
											</Node>
										</Node>
										<Node score="0.36965945">
											<SimplePredicate field="float(standardScaler(log_duration))" operator="greaterOrEqual" value="0.6739149"/>
										</Node>
									</Node>
									<Node score="-0.48359075">
										<SimplePredicate field="float(standardScaler(day_of_year))" operator="greaterOrEqual" value="-0.67849344"/>
										<Node score="-0.15886214">
											<SimplePredicate field="float(standardScaler(day_of_year))" operator="greaterOrEqual" value="0.88708174"/>
										</Node>
									</Node>
									<Node score="0.18956523">
										<SimplePredicate field="float(standardScaler(day_of_year))" operator="greaterOrEqual" value="-1.6672778"/>
									</Node>
								</Node>
							</TreeModel>
						</Segment>
						<Segment id="2">
							<True/>
							<TreeModel functionName="regression" noTrueChildStrategy="returnLastPrediction" x-mathContext="float">
								<MiningSchema>
									<MiningField name="float(standardScaler(day_of_year))"/>
									<MiningField name="float(standardScaler(poutcome_Nie podano))"/>
									<MiningField name="float(standardScaler(poutcome_Porażka))"/>
								</MiningSchema>
								<Node score="0.22927509">
									<True/>
									<Node score="-0.13200036">
										<SimplePredicate field="float(standardScaler(poutcome_Nie podano))" operator="greaterOrEqual" value="-0.5591414"/>
										<Node score="-0.16690642">
											<SimplePredicate field="float(standardScaler(day_of_year))" operator="greaterOrEqual" value="-0.6024331"/>
											<Node score="0.063722685">
												<SimplePredicate field="float(standardScaler(day_of_year))" operator="greaterOrEqual" value="0.88708174"/>
											</Node>
										</Node>
										<Node score="0.24281763">
											<SimplePredicate field="float(standardScaler(day_of_year))" operator="greaterOrEqual" value="-1.6672778"/>
										</Node>
									</Node>
									<Node score="-0.14757513">
										<SimplePredicate field="float(standardScaler(poutcome_Porażka))" operator="greaterOrEqual" value="1.2354923"/>
										<Node score="0.11467372">
											<SimplePredicate field="float(standardScaler(day_of_year))" operator="greaterOrEqual" value="-0.4122823"/>
										</Node>
									</Node>
									<Node score="0.37618735">
										<SimplePredicate field="float(standardScaler(day_of_year))" operator="greaterOrEqual" value="-0.424959"/>
									</Node>
								</Node>
							</TreeModel>
						</Segment>
						<Segment id="3">
							<True/>
							<TreeModel functionName="regression" noTrueChildStrategy="returnLastPrediction" x-mathContext="float">
								<MiningSchema>
									<MiningField name="float(standardScaler(day_of_year))"/>
									<MiningField name="float(standardScaler(housing_Tak))"/>
									<MiningField name="float(standardScaler(contact_Nie podano))"/>
								</MiningSchema>
								<Node score="0.25491917">
									<True/>
									<Node score="-0.05978488">
										<SimplePredicate field="float(standardScaler(housing_Tak))" operator="greaterOrEqual" value="0.042916715"/>
										<Node score="-0.3028973">
											<SimplePredicate field="float(standardScaler(contact_Nie podano))" operator="greaterOrEqual" value="0.7271795"/>
											<Node score="-0.14379135">
												<SimplePredicate field="float(standardScaler(day_of_year))" operator="greaterOrEqual" value="-0.2981918"/>
											</Node>
										</Node>
										<Node score="-0.28800985">
											<SimplePredicate field="float(standardScaler(day_of_year))" operator="greaterOrEqual" value="1.8822044"/>
										</Node>
									</Node>
									<Node score="-0.24867256">
										<SimplePredicate field="float(standardScaler(contact_Nie podano))" operator="greaterOrEqual" value="0.7271795"/>
									</Node>
									<Node score="0.056160185">
										<SimplePredicate field="float(standardScaler(day_of_year))" operator="greaterOrEqual" value="0.19620039"/>
									</Node>
								</Node>
							</TreeModel>
						</Segment>
						<Segment id="4">
							<True/>
							<TreeModel functionName="regression" noTrueChildStrategy="returnLastPrediction" x-mathContext="float">
								<MiningSchema>
									<MiningField name="float(standardScaler(day_of_year))"/>
									<MiningField name="float(standardScaler(log_duration))"/>
									<MiningField name="float(standardScaler(housing_Tak))"/>
								</MiningSchema>
								<Node score="-0.23198889">
									<True/>
									<Node score="0.24609621">
										<SimplePredicate field="float(standardScaler(log_duration))" operator="greaterOrEqual" value="0.40308064"/>
										<Node score="0.23209058">
											<SimplePredicate field="float(standardScaler(log_duration))" operator="greaterOrEqual" value="0.98033917"/>
											<Node score="0.39403614">
												<SimplePredicate field="float(standardScaler(day_of_year))" operator="greaterOrEqual" value="-0.7799072"/>
											</Node>
										</Node>
										<Node score="0.0763197">
											<SimplePredicate field="float(standardScaler(housing_Tak))" operator="greaterOrEqual" value="0.042916715"/>
										</Node>
									</Node>
									<Node score="0.071894646">
										<SimplePredicate field="float(standardScaler(log_duration))" operator="greaterOrEqual" value="-0.6736244"/>
										<Node score="-0.2518463">
											<SimplePredicate field="float(standardScaler(housing_Tak))" operator="greaterOrEqual" value="0.042916715"/>
										</Node>
									</Node>
									<Node score="-0.38716626">
										<SimplePredicate field="float(standardScaler(day_of_year))" operator="greaterOrEqual" value="-0.8432908"/>
									</Node>
								</Node>
							</TreeModel>
						</Segment>
						<Segment id="5">
							<True/>
							<TreeModel functionName="regression" noTrueChildStrategy="returnLastPrediction" x-mathContext="float">
								<MiningSchema>
									<MiningField name="float(standardScaler(day_of_year))"/>
									<MiningField name="float(standardScaler(log_pdays))"/>
									<MiningField name="float(standardScaler(housing_Tak))"/>
									<MiningField name="float(standardScaler(contact_Nie podano))"/>
									<MiningField name="float(standardScaler(poutcome_Nie podano))"/>
									<MiningField name="float(standardScaler(poutcome_Porażka))"/>
								</MiningSchema>
								<Node score="0.286475">
									<True/>
									<Node score="0.0663509">
										<SimplePredicate field="float(standardScaler(poutcome_Nie podano))" operator="greaterOrEqual" value="-0.5591414"/>
										<Node score="-0.19795504">
											<SimplePredicate field="float(standardScaler(contact_Nie podano))" operator="greaterOrEqual" value="0.7271795"/>
											<Node score="0.105968155">
												<SimplePredicate field="float(standardScaler(day_of_year))" operator="greaterOrEqual" value="0.1454935"/>
											</Node>
										</Node>
										<Node score="-0.06406933">
											<SimplePredicate field="float(standardScaler(day_of_year))" operator="greaterOrEqual" value="0.19620039"/>
										</Node>
									</Node>
									<Node score="0.3049879">
										<SimplePredicate field="float(standardScaler(housing_Tak))" operator="greaterOrEqual" value="0.042916715"/>
										<Node score="-0.038867395">
											<SimplePredicate field="float(standardScaler(log_pdays))" operator="greaterOrEqual" value="1.4845564"/>
										</Node>
									</Node>
									<Node score="0.09341508">
										<SimplePredicate field="float(standardScaler(poutcome_Porażka))" operator="greaterOrEqual" value="1.2354923"/>
									</Node>
								</Node>
							</TreeModel>
						</Segment>
						<Segment id="6">
							<True/>
							<TreeModel functionName="regression" noTrueChildStrategy="returnLastPrediction" x-mathContext="float">
								<MiningSchema>
									<MiningField name="float(standardScaler(age))"/>
									<MiningField name="float(standardScaler(log_duration))"/>
									<MiningField name="float(standardScaler(poutcome_Nie podano))"/>
								</MiningSchema>
								<Node score="0.028252488">
									<True/>
									<Node score="0.06607934">
										<SimplePredicate field="float(standardScaler(age))" operator="greaterOrEqual" value="1.6306129"/>
										<Node score="0.34536552">
											<SimplePredicate field="float(standardScaler(log_duration))" operator="greaterOrEqual" value="-0.44447315"/>
										</Node>
									</Node>
									<Node score="0.2312033">
										<SimplePredicate field="float(standardScaler(log_duration))" operator="greaterOrEqual" value="0.51085037"/>
									</Node>
									<Node score="-0.2079669">
										<SimplePredicate field="float(standardScaler(poutcome_Nie podano))" operator="greaterOrEqual" value="-0.5591414"/>
									</Node>
								</Node>
							</TreeModel>
						</Segment>
						<Segment id="7">
							<True/>
							<TreeModel functionName="regression" noTrueChildStrategy="returnLastPrediction" x-mathContext="float">
								<MiningSchema>
									<MiningField name="float(standardScaler(age))"/>
									<MiningField name="float(standardScaler(contact_Nie podano))"/>
								</MiningSchema>
								<Node score="0.2993898">
									<True/>
									<Node score="-0.13426267">
										<SimplePredicate field="float(standardScaler(contact_Nie podano))" operator="greaterOrEqual" value="0.7271795"/>
									</Node>
									<Node score="-0.007990667">
										<SimplePredicate field="float(standardScaler(age))" operator="greaterOrEqual" value="-1.3117522"/>
										<Node score="0.21824618">
											<SimplePredicate field="float(standardScaler(age))" operator="greaterOrEqual" value="1.5465453"/>
										</Node>
									</Node>
								</Node>
							</TreeModel>
						</Segment>
						<Segment id="8">
							<True/>
							<TreeModel functionName="regression" noTrueChildStrategy="returnLastPrediction" x-mathContext="float">
								<MiningSchema>
									<MiningField name="float(standardScaler(age))"/>
									<MiningField name="float(standardScaler(log_pdays))"/>
									<MiningField name="float(standardScaler(housing_Tak))"/>
								</MiningSchema>
								<Node score="0.19245067">
									<True/>
									<Node score="-0.06800959">
										<SimplePredicate field="float(standardScaler(housing_Tak))" operator="greaterOrEqual" value="0.042916715"/>
										<Node score="0.09796441">
											<SimplePredicate field="float(standardScaler(age))" operator="greaterOrEqual" value="1.4624777"/>
										</Node>
										<Node score="0.29925266">
											<SimplePredicate field="float(standardScaler(log_pdays))" operator="greaterOrEqual" value="1.9818244"/>
										</Node>
									</Node>
									<Node score="-0.02054818">
										<SimplePredicate field="float(standardScaler(age))" operator="greaterOrEqual" value="-0.97548187"/>
										<Node score="0.14366722">
											<SimplePredicate field="float(standardScaler(log_pdays))" operator="greaterOrEqual" value="0.9247246"/>
										</Node>
									</Node>
								</Node>
							</TreeModel>
						</Segment>
						<Segment id="9">
							<True/>
							<TreeModel functionName="regression" noTrueChildStrategy="returnLastPrediction" x-mathContext="float">
								<MiningSchema>
									<MiningField name="float(standardScaler(day_of_year))"/>
									<MiningField name="float(standardScaler(log_duration))"/>
									<MiningField name="float(standardScaler(log_campaign))"/>
								</MiningSchema>
								<Node score="-0.2640143">
									<True/>
									<Node score="-0.02121576">
										<SimplePredicate field="float(standardScaler(log_campaign))" operator="greaterOrEqual" value="-0.42271727"/>
										<Node score="-0.05060187">
											<SimplePredicate field="float(standardScaler(log_duration))" operator="greaterOrEqual" value="0.34768474"/>
											<Node score="0.17905591">
												<SimplePredicate field="float(standardScaler(day_of_year))" operator="greaterOrEqual" value="-1.6989696"/>
											</Node>
										</Node>
										<Node score="-0.20784803">
											<SimplePredicate field="float(standardScaler(day_of_year))" operator="greaterOrEqual" value="-0.8306141"/>
										</Node>
									</Node>
									<Node score="0.044235587">
										<SimplePredicate field="float(standardScaler(log_duration))" operator="greaterOrEqual" value="-0.8013732"/>
										<Node score="0.23507465">
											<SimplePredicate field="float(standardScaler(day_of_year))" operator="greaterOrEqual" value="0.5765021"/>
										</Node>
									</Node>
								</Node>
							</TreeModel>
						</Segment>
						<Segment id="10">
							<True/>
							<TreeModel functionName="regression" noTrueChildStrategy="returnLastPrediction" x-mathContext="float">
								<MiningSchema>
									<MiningField name="float(standardScaler(log_campaign))"/>
									<MiningField name="float(standardScaler(job_Pracownik zarządzający))"/>
									<MiningField name="float(standardScaler(contact_Nie podano))"/>
									<MiningField name="float(standardScaler(poutcome_Porażka))"/>
								</MiningSchema>
								<Node score="0.048408322">
									<True/>
									<Node score="-0.09221331">
										<SimplePredicate field="float(standardScaler(poutcome_Porażka))" operator="greaterOrEqual" value="1.2354923"/>
										<Node score="0.036114812">
											<SimplePredicate field="float(standardScaler(job_Pracownik zarządzający))" operator="greaterOrEqual" value="0.6343186"/>
										</Node>
									</Node>
									<Node score="-0.08991338">
										<SimplePredicate field="float(standardScaler(contact_Nie podano))" operator="greaterOrEqual" value="0.7271795"/>
									</Node>
									<Node score="-0.109207995">
										<SimplePredicate field="float(standardScaler(log_campaign))" operator="greaterOrEqual" value="1.2593877"/>
									</Node>
								</Node>
							</TreeModel>
						</Segment>
						<Segment id="11">
							<True/>
							<TreeModel functionName="regression" noTrueChildStrategy="returnLastPrediction" x-mathContext="float">
								<MiningSchema>
									<MiningField name="float(standardScaler(age))"/>
									<MiningField name="float(standardScaler(day_of_year))"/>
									<MiningField name="float(standardScaler(log_duration))"/>
								</MiningSchema>
								<Node score="-0.27171475">
									<True/>
									<Node score="-0.051871356">
										<SimplePredicate field="float(standardScaler(day_of_year))" operator="greaterOrEqual" value="-1.6989696"/>
										<Node score="-0.19932823">
											<SimplePredicate field="float(standardScaler(age))" operator="greaterOrEqual" value="-0.97548187"/>
											<Node score="0.072573">
												<SimplePredicate field="float(standardScaler(log_duration))" operator="greaterOrEqual" value="-0.4317012"/>
											</Node>
										</Node>
										<Node score="0.17422213">
											<SimplePredicate field="float(standardScaler(log_duration))" operator="greaterOrEqual" value="-0.36413443"/>
										</Node>
									</Node>
									<Node score="-0.06684965">
										<SimplePredicate field="float(standardScaler(age))" operator="greaterOrEqual" value="1.210275"/>
									</Node>
									<Node score="0.2324651">
										<SimplePredicate field="float(standardScaler(log_duration))" operator="greaterOrEqual" value="1.073676"/>
									</Node>
								</Node>
							</TreeModel>
						</Segment>
						<Segment id="12">
							<True/>
							<TreeModel functionName="regression" noTrueChildStrategy="returnLastPrediction" x-mathContext="float">
								<MiningSchema>
									<MiningField name="float(standardScaler(age))"/>
									<MiningField name="float(standardScaler(day_of_year))"/>
									<MiningField name="float(standardScaler(log_duration))"/>
								</MiningSchema>
								<Node score="-0.29806718">
									<True/>
									<Node score="0.030346014">
										<SimplePredicate field="float(standardScaler(age))" operator="greaterOrEqual" value="1.6306129"/>
										<Node score="-0.054477423">
											<SimplePredicate field="float(standardScaler(log_duration))" operator="greaterOrEqual" value="0.6695272"/>
										</Node>
										<Node score="0.30223033">
											<SimplePredicate field="float(standardScaler(log_duration))" operator="greaterOrEqual" value="-0.44447315"/>
										</Node>
									</Node>
									<Node score="0.033451747">
										<SimplePredicate field="float(standardScaler(log_duration))" operator="greaterOrEqual" value="0.93543184"/>
										<Node score="0.24925844">
											<SimplePredicate field="float(standardScaler(day_of_year))" operator="greaterOrEqual" value="-0.7799072"/>
										</Node>
									</Node>
									<Node score="-0.034979556">
										<SimplePredicate field="float(standardScaler(log_duration))" operator="greaterOrEqual" value="-1.0686617"/>
									</Node>
								</Node>
							</TreeModel>
						</Segment>
						<Segment id="13">
							<True/>
							<TreeModel functionName="regression" noTrueChildStrategy="returnLastPrediction" x-mathContext="float">
								<MiningSchema>
									<MiningField name="float(standardScaler(age))"/>
									<MiningField name="float(standardScaler(log_duration))"/>
									<MiningField name="float(standardScaler(housing_Tak))"/>
									<MiningField name="float(standardScaler(poutcome_Nie podano))"/>
								</MiningSchema>
								<Node score="-0.29696843">
									<True/>
									<Node score="0.09321867">
										<SimplePredicate field="float(standardScaler(log_duration))" operator="greaterOrEqual" value="0.76793563"/>
										<Node score="0.03798657">
											<SimplePredicate field="float(standardScaler(age))" operator="greaterOrEqual" value="0.9580723"/>
										</Node>
										<Node score="0.23446642">
											<SimplePredicate field="float(standardScaler(log_duration))" operator="greaterOrEqual" value="1.2087971"/>
										</Node>
									</Node>
									<Node score="-0.023819426">
										<SimplePredicate field="float(standardScaler(housing_Tak))" operator="greaterOrEqual" value="0.042916715"/>
										<Node score="-0.18254878">
											<SimplePredicate field="float(standardScaler(poutcome_Nie podano))" operator="greaterOrEqual" value="-0.5591414"/>
										</Node>
									</Node>
									<Node score="0.045505743">
										<SimplePredicate field="float(standardScaler(log_duration))" operator="greaterOrEqual" value="-1.2063944"/>
									</Node>
								</Node>
							</TreeModel>
						</Segment>
						<Segment id="14">
							<True/>
							<TreeModel functionName="regression" noTrueChildStrategy="returnLastPrediction" x-mathContext="float">
								<MiningSchema>
									<MiningField name="float(standardScaler(log_duration))"/>
									<MiningField name="float(standardScaler(log_pdays))"/>
									<MiningField name="float(standardScaler(contact_Nie podano))"/>
									<MiningField name="float(standardScaler(poutcome_Porażka))"/>
								</MiningSchema>
								<Node score="-0.054078583">
									<True/>
									<Node score="0.15136872">
										<SimplePredicate field="float(standardScaler(log_pdays))" operator="greaterOrEqual" value="1.0414679"/>
										<Node score="-0.039258774">
											<SimplePredicate field="float(standardScaler(poutcome_Porażka))" operator="greaterOrEqual" value="1.2354923"/>
										</Node>
									</Node>
									<Node score="0.08042925">
										<SimplePredicate field="float(standardScaler(log_duration))" operator="greaterOrEqual" value="0.39738685"/>
									</Node>
									<Node score="-0.26306218">
										<SimplePredicate field="float(standardScaler(contact_Nie podano))" operator="greaterOrEqual" value="0.7271795"/>
									</Node>
								</Node>
							</TreeModel>
						</Segment>
						<Segment id="15">
							<True/>
							<TreeModel functionName="regression" noTrueChildStrategy="returnLastPrediction" x-mathContext="float">
								<MiningSchema>
									<MiningField name="float(standardScaler(day_of_year))"/>
									<MiningField name="float(standardScaler(log_campaign))"/>
									<MiningField name="float(standardScaler(contact_Nie podano))"/>
								</MiningSchema>
								<Node score="0.07951229">
									<True/>
									<Node score="-0.01927758">
										<SimplePredicate field="float(standardScaler(log_campaign))" operator="greaterOrEqual" value="-0.42271727"/>
										<Node score="-0.18927059">
											<SimplePredicate field="float(standardScaler(day_of_year))" operator="greaterOrEqual" value="1.8822044"/>
										</Node>
									</Node>
									<Node score="-0.19209923">
										<SimplePredicate field="float(standardScaler(day_of_year))" operator="greaterOrEqual" value="1.8822044"/>
									</Node>
									<Node score="-0.049427554">
										<SimplePredicate field="float(standardScaler(contact_Nie podano))" operator="greaterOrEqual" value="0.7271795"/>
									</Node>
								</Node>
							</TreeModel>
						</Segment>
						<Segment id="16">
							<True/>
							<TreeModel functionName="regression" noTrueChildStrategy="returnLastPrediction" x-mathContext="float">
								<MiningSchema>
									<MiningField name="default_Tak"/>
									<MiningField name="float(standardScaler(log_campaign))"/>
									<MiningField name="float(standardScaler(housing_Tak))"/>
								</MiningSchema>
								<LocalTransformations>
									<DerivedField name="standardScaler(default_Tak)" optype="continuous" dataType="double">
										<Apply function="/">
											<Apply function="-">
												<FieldRef field="default_Tak"/>
												<Constant dataType="double">0.015998976065531807</Constant>
											</Apply>
											<Constant dataType="double">0.12547114740204754</Constant>
										</Apply>
									</DerivedField>
									<DerivedField name="float(standardScaler(default_Tak))" optype="continuous" dataType="float">
										<FieldRef field="standardScaler(default_Tak)"/>
									</DerivedField>
								</LocalTransformations>
								<Node score="0.04762158">
									<True/>
									<Node score="-0.0590986">
										<SimplePredicate field="float(standardScaler(log_campaign))" operator="greaterOrEqual" value="0.8862148"/>
									</Node>
									<Node score="-0.13909173">
										<SimplePredicate field="float(standardScaler(default_Tak))" operator="greaterOrEqual" value="3.8574688"/>
									</Node>
									<Node score="-0.02616155">
										<SimplePredicate field="float(standardScaler(housing_Tak))" operator="greaterOrEqual" value="0.042916715"/>
									</Node>
								</Node>
							</TreeModel>
						</Segment>
						<Segment id="17">
							<True/>
							<TreeModel functionName="regression" noTrueChildStrategy="returnLastPrediction" x-mathContext="float">
								<MiningSchema>
									<MiningField name="float(standardScaler(day_of_year))"/>
									<MiningField name="float(standardScaler(job_Pracownik zarządzający))"/>
									<MiningField name="float(standardScaler(contact_Nie podano))"/>
								</MiningSchema>
								<Node score="0.09257492">
									<True/>
									<Node score="0.33001572">
										<SimplePredicate field="float(standardScaler(day_of_year))" operator="greaterOrEqual" value="-1.6989696"/>
										<Node score="-0.08075902">
											<SimplePredicate field="float(standardScaler(contact_Nie podano))" operator="greaterOrEqual" value="0.7271795"/>
											<Node score="0.272332">
												<SimplePredicate field="float(standardScaler(day_of_year))" operator="greaterOrEqual" value="-0.006627169"/>
											</Node>
										</Node>
										<Node score="0.0013234647">
											<SimplePredicate field="float(standardScaler(day_of_year))" operator="greaterOrEqual" value="-1.0714718"/>
										</Node>
									</Node>
									<Node score="-0.113302924">
										<SimplePredicate field="float(standardScaler(job_Pracownik zarządzający))" operator="greaterOrEqual" value="0.6343186"/>
									</Node>
									<Node score="-0.2405401">
										<SimplePredicate field="float(standardScaler(day_of_year))" operator="greaterOrEqual" value="-1.8193984"/>
									</Node>
								</Node>
							</TreeModel>
						</Segment>
						<Segment id="18">
							<True/>
							<TreeModel functionName="regression" noTrueChildStrategy="returnLastPrediction" x-mathContext="float">
								<MiningSchema>
									<MiningField name="float(standardScaler(log_duration))"/>
									<MiningField name="float(standardScaler(log_pdays))"/>
								</MiningSchema>
								<Node score="-0.23840965">
									<True/>
									<Node score="0.23309734">
										<SimplePredicate field="float(standardScaler(log_pdays))" operator="greaterOrEqual" value="1.9828144"/>
									</Node>
									<Node score="-0.26632112">
										<SimplePredicate field="float(standardScaler(log_pdays))" operator="greaterOrEqual" value="1.9205136"/>
										<Node score="0.0537541">
											<SimplePredicate field="float(standardScaler(log_duration))" operator="greaterOrEqual" value="0.6223403"/>
										</Node>
									</Node>
									<Node score="0.021948028">
										<SimplePredicate field="float(standardScaler(log_duration))" operator="greaterOrEqual" value="-1.0686617"/>
									</Node>
								</Node>
							</TreeModel>
						</Segment>
						<Segment id="19">
							<True/>
							<TreeModel functionName="regression" noTrueChildStrategy="returnLastPrediction" x-mathContext="float">
								<MiningSchema>
									<MiningField name="float(standardScaler(day_of_year))"/>
								</MiningSchema>
								<Node score="0.012753389">
									<True/>
									<Node score="-0.3032164">
										<SimplePredicate field="float(standardScaler(day_of_year))" operator="greaterOrEqual" value="1.8822044"/>
										<Node score="0.29167932">
											<SimplePredicate field="float(standardScaler(day_of_year))" operator="greaterOrEqual" value="1.9836183"/>
										</Node>
										<Node score="-0.1203299">
											<SimplePredicate field="float(standardScaler(day_of_year))" operator="greaterOrEqual" value="1.9202346"/>
										</Node>
									</Node>
									<Node score="0.17049307">
										<SimplePredicate field="float(standardScaler(day_of_year))" operator="greaterOrEqual" value="0.99483395"/>
										<Node score="0.379429">
											<SimplePredicate field="float(standardScaler(day_of_year))" operator="greaterOrEqual" value="1.5272563"/>
										</Node>
									</Node>
									<Node score="-0.0701156">
										<SimplePredicate field="float(standardScaler(day_of_year))" operator="greaterOrEqual" value="0.19620039"/>
									</Node>
								</Node>
							</TreeModel>
						</Segment>
						<Segment id="20">
							<True/>
							<TreeModel functionName="regression" noTrueChildStrategy="returnLastPrediction" x-mathContext="float">
								<MiningSchema>
									<MiningField name="job_Student"/>
									<MiningField name="float(standardScaler(day_of_year))"/>
									<MiningField name="float(standardScaler(poutcome_Nie podano))"/>
								</MiningSchema>
								<LocalTransformations>
									<DerivedField name="standardScaler(job_Student)" optype="continuous" dataType="double">
										<Apply function="/">
											<Apply function="-">
												<FieldRef field="job_Student"/>
												<Constant dataType="double">0.0331498784077819</Constant>
											</Apply>
											<Constant dataType="double">0.17902783015311102</Constant>
										</Apply>
									</DerivedField>
									<DerivedField name="float(standardScaler(job_Student))" optype="continuous" dataType="float">
										<FieldRef field="standardScaler(job_Student)"/>
									</DerivedField>
								</LocalTransformations>
								<Node score="-0.11014851">
									<True/>
									<Node score="0.04879747">
										<SimplePredicate field="float(standardScaler(day_of_year))" operator="greaterOrEqual" value="-1.6672778"/>
										<Node score="-0.007175793">
											<SimplePredicate field="float(standardScaler(poutcome_Nie podano))" operator="greaterOrEqual" value="-0.5591414"/>
											<Node score="0.1640667">
												<SimplePredicate field="float(standardScaler(job_Student))" operator="greaterOrEqual" value="2.6076958"/>
											</Node>
										</Node>
									</Node>
								</Node>
							</TreeModel>
						</Segment>
						<Segment id="21">
							<True/>
							<TreeModel functionName="regression" noTrueChildStrategy="returnLastPrediction" x-mathContext="float">
								<MiningSchema>
									<MiningField name="float(standardScaler(log_duration))"/>
									<MiningField name="float(standardScaler(housing_Tak))"/>
								</MiningSchema>
								<Node score="-0.08838357">
									<True/>
									<Node score="0.1488566">
										<SimplePredicate field="float(standardScaler(log_duration))" operator="greaterOrEqual" value="1.0465473"/>
									</Node>
									<Node score="-0.12043207">
										<SimplePredicate field="float(standardScaler(housing_Tak))" operator="greaterOrEqual" value="0.042916715"/>
										<Node score="0.0015879535">
											<SimplePredicate field="float(standardScaler(log_duration))" operator="greaterOrEqual" value="0.14310291"/>
										</Node>
									</Node>
									<Node score="0.042439617">
										<SimplePredicate field="float(standardScaler(log_duration))" operator="greaterOrEqual" value="-0.43806753"/>
									</Node>
								</Node>
							</TreeModel>
						</Segment>
						<Segment id="22">
							<True/>
							<TreeModel functionName="regression" noTrueChildStrategy="returnLastPrediction" x-mathContext="float">
								<MiningSchema>
									<MiningField name="float(standardScaler(log_duration))"/>
									<MiningField name="float(standardScaler(contact_Nie podano))"/>
								</MiningSchema>
								<Node score="-0.2350687">
									<True/>
									<Node score="0.013088577">
										<SimplePredicate field="float(standardScaler(log_duration))" operator="greaterOrEqual" value="-1.2063944"/>
										<Node score="0.14555417">
											<SimplePredicate field="float(standardScaler(log_duration))" operator="greaterOrEqual" value="1.2087971"/>
										</Node>
										<Node score="-0.116515346">
											<SimplePredicate field="float(standardScaler(contact_Nie podano))" operator="greaterOrEqual" value="0.7271795"/>
										</Node>
									</Node>
								</Node>
							</TreeModel>
						</Segment>
						<Segment id="23">
							<True/>
							<TreeModel functionName="regression" noTrueChildStrategy="returnLastPrediction" x-mathContext="float">
								<MiningSchema>
									<MiningField name="float(standardScaler(day_of_year))"/>
									<MiningField name="float(standardScaler(log_duration))"/>
								</MiningSchema>
								<Node score="-0.26160565">
									<True/>
									<Node score="-0.0027300222">
										<SimplePredicate field="float(standardScaler(log_duration))" operator="greaterOrEqual" value="-1.4296262"/>
										<Node score="-0.19441307">
											<SimplePredicate field="float(standardScaler(day_of_year))" operator="greaterOrEqual" value="1.8948811"/>
											<Node score="0.21691604">
												<SimplePredicate field="float(standardScaler(day_of_year))" operator="greaterOrEqual" value="1.9836183"/>
											</Node>
										</Node>
										<Node score="0.20336038">
											<SimplePredicate field="float(standardScaler(day_of_year))" operator="greaterOrEqual" value="0.9631421"/>
										</Node>
									</Node>
								</Node>
							</TreeModel>
						</Segment>
						<Segment id="24">
							<True/>
							<TreeModel functionName="regression" noTrueChildStrategy="returnLastPrediction" x-mathContext="float">
								<MiningSchema>
									<MiningField name="float(standardScaler(log_duration))"/>
									<MiningField name="float(standardScaler(log_campaign))"/>
								</MiningSchema>
								<Node score="-0.19889583">
									<True/>
									<Node score="0.011608656">
										<SimplePredicate field="float(standardScaler(log_duration))" operator="greaterOrEqual" value="-0.21484558"/>
										<Node score="0.115990855">
											<SimplePredicate field="float(standardScaler(log_duration))" operator="greaterOrEqual" value="1.2087971"/>
										</Node>
									</Node>
									<Node score="-0.22656257">
										<SimplePredicate field="float(standardScaler(log_campaign))" operator="greaterOrEqual" value="0.8862148"/>
									</Node>
									<Node score="-0.013923863">
										<SimplePredicate field="float(standardScaler(log_duration))" operator="greaterOrEqual" value="-1.4296262"/>
									</Node>
								</Node>
							</TreeModel>
						</Segment>
						<Segment id="25">
							<True/>
							<TreeModel functionName="regression" noTrueChildStrategy="returnLastPrediction" x-mathContext="float">
								<MiningSchema>
									<MiningField name="float(standardScaler(age))"/>
									<MiningField name="float(standardScaler(job_Pracownik zarządzający))"/>
								</MiningSchema>
								<Node score="0.14916277">
									<True/>
									<Node score="0.038696878">
										<SimplePredicate field="float(standardScaler(job_Pracownik zarządzający))" operator="greaterOrEqual" value="0.6343186"/>
									</Node>
									<Node score="-0.02178578">
										<SimplePredicate field="float(standardScaler(age))" operator="greaterOrEqual" value="-1.3117522"/>
									</Node>
								</Node>
							</TreeModel>
						</Segment>
						<Segment id="26">
							<True/>
							<TreeModel functionName="regression" noTrueChildStrategy="returnLastPrediction" x-mathContext="float">
								<MiningSchema>
									<MiningField name="float(standardScaler(log_duration))"/>
									<MiningField name="float(standardScaler(log_pdays))"/>
									<MiningField name="float(standardScaler(contact_Nie podano))"/>
								</MiningSchema>
								<Node score="-0.0061829314">
									<True/>
									<Node score="0.18514962">
										<SimplePredicate field="float(standardScaler(log_pdays))" operator="greaterOrEqual" value="1.9828144"/>
									</Node>
									<Node score="0.04915214">
										<SimplePredicate field="float(standardScaler(log_duration))" operator="greaterOrEqual" value="0.5944025"/>
									</Node>
									<Node score="-0.19285513">
										<SimplePredicate field="float(standardScaler(contact_Nie podano))" operator="greaterOrEqual" value="0.7271795"/>
									</Node>
								</Node>
							</TreeModel>
						</Segment>
						<Segment id="27">
							<True/>
							<TreeModel functionName="regression" noTrueChildStrategy="returnLastPrediction" x-mathContext="float">
								<MiningSchema>
									<MiningField name="float(standardScaler(day_of_year))"/>
									<MiningField name="float(standardScaler(log_pdays))"/>
									<MiningField name="float(standardScaler(poutcome_Porażka))"/>
								</MiningSchema>
								<Node score="-0.00961538">
									<True/>
									<Node score="-0.017545965">
										<SimplePredicate field="float(standardScaler(poutcome_Porażka))" operator="greaterOrEqual" value="1.2354923"/>
										<Node score="-0.2563566">
											<SimplePredicate field="float(standardScaler(day_of_year))" operator="greaterOrEqual" value="1.856851"/>
										</Node>
									</Node>
									<Node score="0.09699308">
										<SimplePredicate field="float(standardScaler(log_pdays))" operator="greaterOrEqual" value="0.99408877"/>
									</Node>
								</Node>
							</TreeModel>
						</Segment>
						<Segment id="28">
							<True/>
							<TreeModel functionName="regression" noTrueChildStrategy="returnLastPrediction" x-mathContext="float">
								<MiningSchema>
									<MiningField name="float(standardScaler(day_of_year))"/>
									<MiningField name="float(standardScaler(log_duration))"/>
								</MiningSchema>
								<Node score="-0.21488883">
									<True/>
									<Node score="0.119928055">
										<SimplePredicate field="float(standardScaler(log_duration))" operator="greaterOrEqual" value="-1.4296262"/>
										<Node score="0.2957983">
											<SimplePredicate field="float(standardScaler(day_of_year))" operator="greaterOrEqual" value="-1.6989696"/>
											<Node score="-0.0069750333">
												<SimplePredicate field="float(standardScaler(day_of_year))" operator="greaterOrEqual" value="-1.0714718"/>
											</Node>
										</Node>
										<Node score="-0.14384969">
											<SimplePredicate field="float(standardScaler(day_of_year))" operator="greaterOrEqual" value="-1.8193984"/>
										</Node>
									</Node>
								</Node>
							</TreeModel>
						</Segment>
						<Segment id="29">
							<True/>
							<TreeModel functionName="regression" noTrueChildStrategy="returnLastPrediction" x-mathContext="float">
								<MiningSchema>
									<MiningField name="float(standardScaler(log_duration))"/>
									<MiningField name="float(standardScaler(log_campaign))"/>
									<MiningField name="float(standardScaler(log_pdays))"/>
								</MiningSchema>
								<Node score="-0.046143517">
									<True/>
									<Node score="0.008746653">
										<SimplePredicate field="float(standardScaler(log_duration))" operator="greaterOrEqual" value="0.14310291"/>
										<Node score="0.14618279">
											<SimplePredicate field="float(standardScaler(log_duration))" operator="greaterOrEqual" value="1.6183848"/>
										</Node>
										<Node score="0.12525219">
											<SimplePredicate field="float(standardScaler(log_campaign))" operator="greaterOrEqual" value="1.2593877"/>
										</Node>
									</Node>
									<Node score="-0.11287544">
										<SimplePredicate field="float(standardScaler(log_pdays))" operator="greaterOrEqual" value="1.7514927"/>
									</Node>
									<Node score="0.084810995">
										<SimplePredicate field="float(standardScaler(log_pdays))" operator="greaterOrEqual" value="0.99408877"/>
									</Node>
								</Node>
							</TreeModel>
						</Segment>
						<Segment id="30">
							<True/>
							<TreeModel functionName="regression" noTrueChildStrategy="returnLastPrediction" x-mathContext="float">
								<MiningSchema>
									<MiningField name="float(standardScaler(log_duration))"/>
									<MiningField name="float(standardScaler(log_campaign))"/>
								</MiningSchema>
								<Node score="0.019956505">
									<True/>
									<Node score="-0.02119556">
										<SimplePredicate field="float(standardScaler(log_campaign))" operator="greaterOrEqual" value="-0.42271727"/>
										<Node score="0.011325436">
											<SimplePredicate field="float(standardScaler(log_duration))" operator="greaterOrEqual" value="-0.10731681"/>
										</Node>
										<Node score="-0.18173757">
											<SimplePredicate field="float(standardScaler(log_campaign))" operator="greaterOrEqual" value="0.8862148"/>
										</Node>
									</Node>
								</Node>
							</TreeModel>
						</Segment>
						<Segment id="31">
							<True/>
							<TreeModel functionName="regression" noTrueChildStrategy="returnLastPrediction" x-mathContext="float">
								<MiningSchema>
									<MiningField name="float(standardScaler(age))"/>
									<MiningField name="float(standardScaler(day_of_year))"/>
									<MiningField name="float(standardScaler(log_pdays))"/>
								</MiningSchema>
								<Node score="0.12394533">
									<True/>
									<Node score="-0.088855475">
										<SimplePredicate field="float(standardScaler(day_of_year))" operator="greaterOrEqual" value="1.8822044"/>
									</Node>
									<Node score="0.013979928">
										<SimplePredicate field="float(standardScaler(age))" operator="greaterOrEqual" value="-1.3958198"/>
										<Node score="-0.06655147">
											<SimplePredicate field="float(standardScaler(log_pdays))" operator="greaterOrEqual" value="1.7227025"/>
										</Node>
									</Node>
								</Node>
							</TreeModel>
						</Segment>
						<Segment id="32">
							<True/>
							<TreeModel functionName="regression" noTrueChildStrategy="returnLastPrediction" x-mathContext="float">
								<MiningSchema>
									<MiningField name="float(standardScaler(day_of_year))"/>
									<MiningField name="float(standardScaler(housing_Tak))"/>
								</MiningSchema>
								<Node score="0.07753269">
									<True/>
									<Node score="0.08484095">
										<SimplePredicate field="float(standardScaler(day_of_year))" operator="greaterOrEqual" value="-1.7560148"/>
										<Node score="-0.008946803">
											<SimplePredicate field="float(standardScaler(day_of_year))" operator="greaterOrEqual" value="-1.020765"/>
										</Node>
										<Node score="0.24674983">
											<SimplePredicate field="float(standardScaler(housing_Tak))" operator="greaterOrEqual" value="0.042916715"/>
										</Node>
									</Node>
									<Node score="-0.22111928">
										<SimplePredicate field="float(standardScaler(day_of_year))" operator="greaterOrEqual" value="-1.8193984"/>
									</Node>
								</Node>
							</TreeModel>
						</Segment>
						<Segment id="33">
							<True/>
							<TreeModel functionName="regression" noTrueChildStrategy="returnLastPrediction" x-mathContext="float">
								<MiningSchema>
									<MiningField name="float(standardScaler(age))"/>
									<MiningField name="float(standardScaler(day_of_year))"/>
									<MiningField name="float(standardScaler(log_pdays))"/>
								</MiningSchema>
								<Node score="-0.023887748">
									<True/>
									<Node score="0.11964428">
										<SimplePredicate field="float(standardScaler(day_of_year))" operator="greaterOrEqual" value="0.88708174"/>
										<Node score="-0.04233299">
											<SimplePredicate field="float(standardScaler(log_pdays))" operator="greaterOrEqual" value="1.4089886"/>
										</Node>
									</Node>
									<Node score="0.16888945">
										<SimplePredicate field="float(standardScaler(age))" operator="greaterOrEqual" value="1.6306129"/>
									</Node>
									<Node score="0.26775476">
										<SimplePredicate field="float(standardScaler(log_pdays))" operator="greaterOrEqual" value="1.9828144"/>
									</Node>
								</Node>
							</TreeModel>
						</Segment>
						<Segment id="34">
							<True/>
							<TreeModel functionName="regression" noTrueChildStrategy="returnLastPrediction" x-mathContext="float">
								<MiningSchema>
									<MiningField name="float(standardScaler(age))"/>
									<MiningField name="float(standardScaler(log_duration))"/>
									<MiningField name="float(standardScaler(log_pdays))"/>
								</MiningSchema>
								<Node score="0.12053433">
									<True/>
									<Node score="-0.00195512">
										<SimplePredicate field="float(standardScaler(log_duration))" operator="greaterOrEqual" value="-0.5964356"/>
										<Node score="0.11765819">
											<SimplePredicate field="float(standardScaler(log_pdays))" operator="greaterOrEqual" value="1.0414679"/>
											<Node score="-0.02795287">
												<SimplePredicate field="float(standardScaler(log_pdays))" operator="greaterOrEqual" value="1.7227025"/>
											</Node>
										</Node>
									</Node>
									<Node score="-0.075382136">
										<SimplePredicate field="float(standardScaler(age))" operator="greaterOrEqual" value="-1.143617"/>
									</Node>
								</Node>
							</TreeModel>
						</Segment>
						<Segment id="35">
							<True/>
							<TreeModel functionName="regression" noTrueChildStrategy="returnLastPrediction" x-mathContext="float">
								<MiningSchema>
									<MiningField name="float(standardScaler(day_of_year))"/>
									<MiningField name="float(standardScaler(log_duration))"/>
									<MiningField name="float(standardScaler(log_campaign))"/>
								</MiningSchema>
								<Node score="0.007522851">
									<True/>
									<Node score="-0.22236893">
										<SimplePredicate field="float(standardScaler(day_of_year))" operator="greaterOrEqual" value="1.8822044"/>
										<Node score="-0.09696884">
											<SimplePredicate field="float(standardScaler(log_campaign))" operator="greaterOrEqual" value="-0.42271727"/>
										</Node>
										<Node score="0.17164926">
											<SimplePredicate field="float(standardScaler(log_duration))" operator="greaterOrEqual" value="0.46080214"/>
										</Node>
									</Node>
								</Node>
							</TreeModel>
						</Segment>
						<Segment id="36">
							<True/>
							<TreeModel functionName="regression" noTrueChildStrategy="returnLastPrediction" x-mathContext="float">
								<MiningSchema>
									<MiningField name="float(standardScaler(day_of_year))"/>
									<MiningField name="float(standardScaler(log_duration))"/>
								</MiningSchema>
								<Node score="0.012227486">
									<True/>
									<Node score="0.06669861">
										<SimplePredicate field="float(standardScaler(log_duration))" operator="greaterOrEqual" value="1.2087971"/>
									</Node>
									<Node score="0.17186375">
										<SimplePredicate field="float(standardScaler(day_of_year))" operator="greaterOrEqual" value="0.88708174"/>
										<Node score="-0.07944512">
											<SimplePredicate field="float(standardScaler(day_of_year))" operator="greaterOrEqual" value="1.8822044"/>
										</Node>
									</Node>
									<Node score="-0.08831588">
										<SimplePredicate field="float(standardScaler(day_of_year))" operator="greaterOrEqual" value="0.19620039"/>
									</Node>
								</Node>
							</TreeModel>
						</Segment>
						<Segment id="37">
							<True/>
							<TreeModel functionName="regression" noTrueChildStrategy="returnLastPrediction" x-mathContext="float">
								<MiningSchema>
									<MiningField name="float(standardScaler(day_of_year))"/>
									<MiningField name="float(standardScaler(log_pdays))"/>
									<MiningField name="float(standardScaler(housing_Tak))"/>
									<MiningField name="float(standardScaler(contact_Nie podano))"/>
								</MiningSchema>
								<Node score="0.07031341">
									<True/>
									<Node score="-0.14568557">
										<SimplePredicate field="float(standardScaler(log_pdays))" operator="greaterOrEqual" value="1.7227025"/>
										<Node score="0.17085558">
											<SimplePredicate field="float(standardScaler(day_of_year))" operator="greaterOrEqual" value="-0.424959"/>
										</Node>
									</Node>
									<Node score="-0.05484721">
										<SimplePredicate field="float(standardScaler(day_of_year))" operator="greaterOrEqual" value="0.1454935"/>
										<Node score="0.031977724">
											<SimplePredicate field="float(standardScaler(housing_Tak))" operator="greaterOrEqual" value="0.042916715"/>
										</Node>
									</Node>
									<Node score="-0.05286401">
										<SimplePredicate field="float(standardScaler(contact_Nie podano))" operator="greaterOrEqual" value="0.7271795"/>
									</Node>
								</Node>
							</TreeModel>
						</Segment>
						<Segment id="38">
							<True/>
							<TreeModel functionName="regression" noTrueChildStrategy="returnLastPrediction" x-mathContext="float">
								<MiningSchema>
									<MiningField name="float(standardScaler(day_of_year))"/>
									<MiningField name="float(standardScaler(job_Bezrobotny))"/>
									<MiningField name="float(standardScaler(education_Wykształcenie średnie))"/>
									<MiningField name="float(standardScaler(housing_Tak))"/>
								</MiningSchema>
								<Node score="0.025337411">
									<True/>
									<Node score="0.079404384">
										<SimplePredicate field="float(standardScaler(job_Bezrobotny))" operator="greaterOrEqual" value="2.647513"/>
									</Node>
									<Node score="-0.005155826">
										<SimplePredicate field="float(standardScaler(day_of_year))" operator="greaterOrEqual" value="-0.46298915"/>
										<Node score="0.062805675">
											<SimplePredicate field="float(standardScaler(housing_Tak))" operator="greaterOrEqual" value="0.042916715"/>
										</Node>
									</Node>
									<Node score="-0.10612019">
										<SimplePredicate field="float(standardScaler(education_Wykształcenie średnie))" operator="greaterOrEqual" value="0.017281473"/>
									</Node>
								</Node>
							</TreeModel>
						</Segment>
						<Segment id="39">
							<True/>
							<TreeModel functionName="regression" noTrueChildStrategy="returnLastPrediction" x-mathContext="float">
								<MiningSchema>
									<MiningField name="float(standardScaler(day_of_year))"/>
									<MiningField name="float(standardScaler(log_duration))"/>
								</MiningSchema>
								<Node score="0.004184526">
									<True/>
									<Node score="0.24207832">
										<SimplePredicate field="float(standardScaler(day_of_year))" operator="greaterOrEqual" value="1.9836183"/>
									</Node>
									<Node score="-0.30076498">
										<SimplePredicate field="float(standardScaler(day_of_year))" operator="greaterOrEqual" value="1.8948811"/>
										<Node score="0.11412127">
											<SimplePredicate field="float(standardScaler(log_duration))" operator="greaterOrEqual" value="0.6200394"/>
										</Node>
									</Node>
								</Node>
							</TreeModel>
						</Segment>
						<Segment id="40">
							<True/>
							<TreeModel functionName="regression" noTrueChildStrategy="returnLastPrediction" x-mathContext="float">
								<MiningSchema>
									<MiningField name="float(standardScaler(day_of_year))"/>
									<MiningField name="float(standardScaler(log_pdays))"/>
								</MiningSchema>
								<Node score="-0.075757585">
									<True/>
									<Node score="0.099084415">
										<SimplePredicate field="float(standardScaler(log_pdays))" operator="greaterOrEqual" value="1.9828144"/>
									</Node>
									<Node score="0.011597964">
										<SimplePredicate field="float(standardScaler(day_of_year))" operator="greaterOrEqual" value="-1.6672778"/>
										<Node score="-0.10621943">
											<SimplePredicate field="float(standardScaler(log_pdays))" operator="greaterOrEqual" value="1.9205136"/>
										</Node>
									</Node>
								</Node>
							</TreeModel>
						</Segment>
						<Segment id="41">
							<True/>
							<TreeModel functionName="regression" noTrueChildStrategy="returnLastPrediction" x-mathContext="float">
								<MiningSchema>
									<MiningField name="float(standardScaler(day_of_year))"/>
									<MiningField name="float(standardScaler(job_Bezrobotny))"/>
									<MiningField name="float(standardScaler(poutcome_Nie podano))"/>
								</MiningSchema>
								<Node score="0.041191712">
									<True/>
									<Node score="0.05778099">
										<SimplePredicate field="float(standardScaler(job_Bezrobotny))" operator="greaterOrEqual" value="2.647513"/>
									</Node>
									<Node score="-0.023766376">
										<SimplePredicate field="float(standardScaler(poutcome_Nie podano))" operator="greaterOrEqual" value="-0.5591414"/>
										<Node score="0.10039382">
											<SimplePredicate field="float(standardScaler(day_of_year))" operator="greaterOrEqual" value="0.88708174"/>
										</Node>
									</Node>
									<Node score="-0.09650381">
										<SimplePredicate field="float(standardScaler(day_of_year))" operator="greaterOrEqual" value="1.1976614"/>
									</Node>
								</Node>
							</TreeModel>
						</Segment>
						<Segment id="42">
							<True/>
							<TreeModel functionName="regression" noTrueChildStrategy="returnLastPrediction" x-mathContext="float">
								<MiningSchema>
									<MiningField name="float(standardScaler(log_duration))"/>
									<MiningField name="float(standardScaler(contact_Telefoniczny))"/>
								</MiningSchema>
								<Node score="0.0013636763">
									<True/>
									<Node score="-0.0719403">
										<SimplePredicate field="float(standardScaler(contact_Telefoniczny))" operator="greaterOrEqual" value="1.7046373"/>
									</Node>
									<Node score="0.16627255">
										<SimplePredicate field="float(standardScaler(log_duration))" operator="greaterOrEqual" value="1.7133598"/>
									</Node>
								</Node>
							</TreeModel>
						</Segment>
						<Segment id="43">
							<True/>
							<TreeModel functionName="regression" noTrueChildStrategy="returnLastPrediction" x-mathContext="float">
								<MiningSchema>
									<MiningField name="float(standardScaler(age))"/>
									<MiningField name="float(standardScaler(day_of_year))"/>
									<MiningField name="float(standardScaler(log_pdays))"/>
								</MiningSchema>
								<Node score="0.023040874">
									<True/>
									<Node score="-0.17470647">
										<SimplePredicate field="float(standardScaler(age))" operator="greaterOrEqual" value="2.7234912"/>
									</Node>
									<Node score="-0.024398856">
										<SimplePredicate field="float(standardScaler(log_pdays))" operator="greaterOrEqual" value="1.0414679"/>
										<Node score="0.08824554">
											<SimplePredicate field="float(standardScaler(day_of_year))" operator="greaterOrEqual" value="-0.32354522"/>
										</Node>
									</Node>
									<Node score="-0.042397358">
										<SimplePredicate field="float(standardScaler(day_of_year))" operator="greaterOrEqual" value="0.1454935"/>
									</Node>
								</Node>
							</TreeModel>
						</Segment>
						<Segment id="44">
							<True/>
							<TreeModel functionName="regression" noTrueChildStrategy="returnLastPrediction" x-mathContext="float">
								<MiningSchema>
									<MiningField name="float(standardScaler(log_campaign))"/>
									<MiningField name="float(standardScaler(log_pdays))"/>
									<MiningField name="float(standardScaler(housing_Tak))"/>
									<MiningField name="float(standardScaler(contact_Nie podano))"/>
								</MiningSchema>
								<Node score="0.001750847">
									<True/>
									<Node score="-0.005246628">
										<SimplePredicate field="float(standardScaler(contact_Nie podano))" operator="greaterOrEqual" value="0.7271795"/>
										<Node score="-0.1735428">
											<SimplePredicate field="float(standardScaler(log_campaign))" operator="greaterOrEqual" value="-0.42271727"/>
											<Node score="0.0038664003">
												<SimplePredicate field="float(standardScaler(housing_Tak))" operator="greaterOrEqual" value="0.042916715"/>
											</Node>
										</Node>
									</Node>
									<Node score="-0.03351705">
										<SimplePredicate field="float(standardScaler(log_pdays))" operator="greaterOrEqual" value="1.7227025"/>
									</Node>
									<Node score="0.24296749">
										<SimplePredicate field="float(standardScaler(log_pdays))" operator="greaterOrEqual" value="1.7042885"/>
									</Node>
								</Node>
							</TreeModel>
						</Segment>
						<Segment id="45">
							<True/>
							<TreeModel functionName="regression" noTrueChildStrategy="returnLastPrediction" x-mathContext="float">
								<MiningSchema>
									<MiningField name="float(standardScaler(day_of_year))"/>
									<MiningField name="float(standardScaler(log_pdays))"/>
									<MiningField name="float(standardScaler(contact_Telefoniczny))"/>
								</MiningSchema>
								<Node score="0.0031373587">
									<True/>
									<Node score="-0.08001645">
										<SimplePredicate field="float(standardScaler(contact_Telefoniczny))" operator="greaterOrEqual" value="1.7046373"/>
										<Node score="-0.16654506">
											<SimplePredicate field="float(standardScaler(log_pdays))" operator="greaterOrEqual" value="-0.39622977"/>
										</Node>
										<Node score="0.13936417">
											<SimplePredicate field="float(standardScaler(day_of_year))" operator="greaterOrEqual" value="0.5384719"/>
										</Node>
									</Node>
								</Node>
							</TreeModel>
						</Segment>
						<Segment id="46">
							<True/>
							<TreeModel functionName="regression" noTrueChildStrategy="returnLastPrediction" x-mathContext="float">
								<MiningSchema>
									<MiningField name="float(standardScaler(age))"/>
									<MiningField name="float(standardScaler(log_duration))"/>
									<MiningField name="float(standardScaler(housing_Tak))"/>
								</MiningSchema>
								<Node score="-0.17011629">
									<True/>
									<Node score="0.020658627">
										<SimplePredicate field="float(standardScaler(log_duration))" operator="greaterOrEqual" value="-1.4296262"/>
										<Node score="0.04648377">
											<SimplePredicate field="float(standardScaler(log_duration))" operator="greaterOrEqual" value="0.7994132"/>
											<Node score="-0.17358598">
												<SimplePredicate field="float(standardScaler(age))" operator="greaterOrEqual" value="1.4624777"/>
											</Node>
										</Node>
										<Node score="-0.04443843">
											<SimplePredicate field="float(standardScaler(housing_Tak))" operator="greaterOrEqual" value="0.042916715"/>
										</Node>
									</Node>
								</Node>
							</TreeModel>
						</Segment>
						<Segment id="47">
							<True/>
							<TreeModel functionName="regression" noTrueChildStrategy="returnLastPrediction" x-mathContext="float">
								<MiningSchema>
									<MiningField name="float(standardScaler(day_of_year))"/>
									<MiningField name="float(standardScaler(log_duration))"/>
									<MiningField name="float(standardScaler(housing_Tak))"/>
								</MiningSchema>
								<Node score="0.02793268">
									<True/>
									<Node score="-0.2105677">
										<SimplePredicate field="float(standardScaler(day_of_year))" operator="greaterOrEqual" value="0.19620039"/>
										<Node score="0.022244241">
											<SimplePredicate field="float(standardScaler(day_of_year))" operator="greaterOrEqual" value="0.5194568"/>
										</Node>
										<Node score="-0.010880223">
											<SimplePredicate field="float(standardScaler(log_duration))" operator="greaterOrEqual" value="0.55958706"/>
										</Node>
									</Node>
									<Node score="0.17057538">
										<SimplePredicate field="float(standardScaler(day_of_year))" operator="greaterOrEqual" value="-0.27283832"/>
									</Node>
									<Node score="-0.049249347">
										<SimplePredicate field="float(standardScaler(housing_Tak))" operator="greaterOrEqual" value="0.042916715"/>
									</Node>
								</Node>
							</TreeModel>
						</Segment>
						<Segment id="48">
							<True/>
							<TreeModel functionName="regression" noTrueChildStrategy="returnLastPrediction" x-mathContext="float">
								<MiningSchema>
									<MiningField name="float(standardScaler(age))"/>
									<MiningField name="float(standardScaler(day_of_year))"/>
								</MiningSchema>
								<Node score="-0.0013360744">
									<True/>
									<Node score="-0.12163477">
										<SimplePredicate field="float(standardScaler(age))" operator="greaterOrEqual" value="2.7234912"/>
									</Node>
									<Node score="-0.16950178">
										<SimplePredicate field="float(standardScaler(day_of_year))" operator="greaterOrEqual" value="1.8822044"/>
										<Node score="0.09619634">
											<SimplePredicate field="float(standardScaler(day_of_year))" operator="greaterOrEqual" value="1.9329113"/>
										</Node>
									</Node>
									<Node score="0.23615953">
										<SimplePredicate field="float(standardScaler(day_of_year))" operator="greaterOrEqual" value="1.5272563"/>
									</Node>
								</Node>
							</TreeModel>
						</Segment>
						<Segment id="49">
							<True/>
							<TreeModel functionName="regression" noTrueChildStrategy="returnLastPrediction" x-mathContext="float">
								<MiningSchema>
									<MiningField name="float(standardScaler(day_of_year))"/>
									<MiningField name="float(standardScaler(log_duration))"/>
								</MiningSchema>
								<Node score="-0.17316659">
									<True/>
									<Node score="0.14952339">
										<SimplePredicate field="float(standardScaler(log_duration))" operator="greaterOrEqual" value="-0.5964356"/>
										<Node score="-0.19792098">
											<SimplePredicate field="float(standardScaler(day_of_year))" operator="greaterOrEqual" value="-1.8193984"/>
											<Node score="0.008313396">
												<SimplePredicate field="float(standardScaler(day_of_year))" operator="greaterOrEqual" value="-1.7877066"/>
											</Node>
										</Node>
									</Node>
									<Node score="-0.3288023">
										<SimplePredicate field="float(standardScaler(day_of_year))" operator="greaterOrEqual" value="-0.69117016"/>
										<Node score="-0.042563524">
											<SimplePredicate field="float(standardScaler(day_of_year))" operator="greaterOrEqual" value="-0.424959"/>
										</Node>
									</Node>
									<Node score="0.20287944">
										<SimplePredicate field="float(standardScaler(day_of_year))" operator="greaterOrEqual" value="-1.6672778"/>
									</Node>
								</Node>
							</TreeModel>
						</Segment>
						<Segment id="50">
							<True/>
							<TreeModel functionName="regression" noTrueChildStrategy="returnLastPrediction" x-mathContext="float">
								<MiningSchema>
									<MiningField name="float(standardScaler(log_duration))"/>
									<MiningField name="float(standardScaler(log_campaign))"/>
								</MiningSchema>
								<Node score="-0.0045643914">
									<True/>
									<Node score="0.008646848">
										<SimplePredicate field="float(standardScaler(log_duration))" operator="greaterOrEqual" value="-0.21484558"/>
									</Node>
									<Node score="-0.13621375">
										<SimplePredicate field="float(standardScaler(log_campaign))" operator="greaterOrEqual" value="0.8862148"/>
									</Node>
								</Node>
							</TreeModel>
						</Segment>
						<Segment id="51">
							<True/>
							<TreeModel functionName="regression" noTrueChildStrategy="returnLastPrediction" x-mathContext="float">
								<MiningSchema>
									<MiningField name="float(standardScaler(log_pdays))"/>
								</MiningSchema>
								<Node score="-1.9578374E-4">
									<True/>
									<Node score="0.2234573">
										<SimplePredicate field="float(standardScaler(log_pdays))" operator="greaterOrEqual" value="1.7042885"/>
										<Node score="-0.010514934">
											<SimplePredicate field="float(standardScaler(log_pdays))" operator="greaterOrEqual" value="1.7207012"/>
										</Node>
									</Node>
									<Node score="-0.15665607">
										<SimplePredicate field="float(standardScaler(log_pdays))" operator="greaterOrEqual" value="1.5896447"/>
									</Node>
								</Node>
							</TreeModel>
						</Segment>
						<Segment id="52">
							<True/>
							<TreeModel functionName="regression" noTrueChildStrategy="returnLastPrediction" x-mathContext="float">
								<MiningSchema>
									<MiningField name="float(standardScaler(day_of_year))"/>
									<MiningField name="float(standardScaler(contact_Nie podano))"/>
								</MiningSchema>
								<Node score="0.039147392">
									<True/>
									<Node score="-0.06018674">
										<SimplePredicate field="float(standardScaler(contact_Nie podano))" operator="greaterOrEqual" value="0.7271795"/>
										<Node score="0.11772181">
											<SimplePredicate field="float(standardScaler(day_of_year))" operator="greaterOrEqual" value="-0.019303892"/>
										</Node>
									</Node>
									<Node score="-0.028133191">
										<SimplePredicate field="float(standardScaler(day_of_year))" operator="greaterOrEqual" value="0.19620039"/>
									</Node>
								</Node>
							</TreeModel>
						</Segment>
						<Segment id="53">
							<True/>
							<TreeModel functionName="regression" noTrueChildStrategy="returnLastPrediction" x-mathContext="float">
								<MiningSchema>
									<MiningField name="float(standardScaler(age))"/>
									<MiningField name="float(standardScaler(day_of_year))"/>
									<MiningField name="float(standardScaler(education_Wykształcenie średnie))"/>
								</MiningSchema>
								<Node score="0.074595466">
									<True/>
									<Node score="0.112540476">
										<SimplePredicate field="float(standardScaler(day_of_year))" operator="greaterOrEqual" value="-0.46298915"/>
										<Node score="0.07770827">
											<SimplePredicate field="float(standardScaler(age))" operator="greaterOrEqual" value="-1.143617"/>
											<Node score="-0.017299108">
												<SimplePredicate field="float(standardScaler(day_of_year))" operator="greaterOrEqual" value="-0.07001078"/>
											</Node>
										</Node>
									</Node>
									<Node score="-0.06603219">
										<SimplePredicate field="float(standardScaler(education_Wykształcenie średnie))" operator="greaterOrEqual" value="0.017281473"/>
									</Node>
									<Node score="-0.1140993">
										<SimplePredicate field="float(standardScaler(day_of_year))" operator="greaterOrEqual" value="-0.6024331"/>
									</Node>
								</Node>
							</TreeModel>
						</Segment>
						<Segment id="54">
							<True/>
							<TreeModel functionName="regression" noTrueChildStrategy="returnLastPrediction" x-mathContext="float">
								<MiningSchema>
									<MiningField name="float(standardScaler(age))"/>
									<MiningField name="float(standardScaler(day_of_year))"/>
								</MiningSchema>
								<Node score="0.006406099">
									<True/>
									<Node score="-0.09251481">
										<SimplePredicate field="float(standardScaler(age))" operator="greaterOrEqual" value="2.7234912"/>
									</Node>
									<Node score="0.058580667">
										<SimplePredicate field="float(standardScaler(day_of_year))" operator="greaterOrEqual" value="0.5194568"/>
										<Node score="-0.042572707">
											<SimplePredicate field="float(standardScaler(day_of_year))" operator="greaterOrEqual" value="1.8631893"/>
										</Node>
									</Node>
									<Node score="-0.100824945">
										<SimplePredicate field="float(standardScaler(day_of_year))" operator="greaterOrEqual" value="0.20887712"/>
									</Node>
								</Node>
							</TreeModel>
						</Segment>
						<Segment id="55">
							<True/>
							<TreeModel functionName="regression" noTrueChildStrategy="returnLastPrediction" x-mathContext="float">
								<MiningSchema>
									<MiningField name="float(standardScaler(day_of_year))"/>
									<MiningField name="float(standardScaler(log_pdays))"/>
								</MiningSchema>
								<Node score="-0.059491187">
									<True/>
									<Node score="0.18952627">
										<SimplePredicate field="float(standardScaler(day_of_year))" operator="greaterOrEqual" value="-1.6672778"/>
										<Node score="0.07032352">
											<SimplePredicate field="float(standardScaler(log_pdays))" operator="greaterOrEqual" value="1.7042885"/>
											<Node score="-0.10204623">
												<SimplePredicate field="float(standardScaler(day_of_year))" operator="greaterOrEqual" value="0.9060968"/>
											</Node>
										</Node>
										<Node score="-0.0090065105">
											<SimplePredicate field="float(standardScaler(day_of_year))" operator="greaterOrEqual" value="-1.020765"/>
										</Node>
									</Node>
								</Node>
							</TreeModel>
						</Segment>
						<Segment id="56">
							<True/>
							<TreeModel functionName="regression" noTrueChildStrategy="returnLastPrediction" x-mathContext="float">
								<MiningSchema>
									<MiningField name="float(standardScaler(log_duration))"/>
									<MiningField name="float(standardScaler(job_Pracownik zarządzający))"/>
								</MiningSchema>
								<Node score="-0.028853396">
									<True/>
									<Node score="-0.097565494">
										<SimplePredicate field="float(standardScaler(job_Pracownik zarządzający))" operator="greaterOrEqual" value="0.6343186"/>
										<Node score="0.07929457">
											<SimplePredicate field="float(standardScaler(log_duration))" operator="greaterOrEqual" value="-0.63431245"/>
											<Node score="-0.03772877">
												<SimplePredicate field="float(standardScaler(log_duration))" operator="greaterOrEqual" value="0.44208598"/>
											</Node>
										</Node>
									</Node>
									<Node score="0.031943787">
										<SimplePredicate field="float(standardScaler(log_duration))" operator="greaterOrEqual" value="0.44481677"/>
									</Node>
								</Node>
							</TreeModel>
						</Segment>
						<Segment id="57">
							<True/>
							<TreeModel functionName="regression" noTrueChildStrategy="returnLastPrediction" x-mathContext="float">
								<MiningSchema>
									<MiningField name="float(standardScaler(day_of_year))"/>
									<MiningField name="float(standardScaler(housing_Tak))"/>
								</MiningSchema>
								<Node score="-0.021636017">
									<True/>
									<Node score="-0.006982041">
										<SimplePredicate field="float(standardScaler(day_of_year))" operator="greaterOrEqual" value="-0.27283832"/>
										<Node score="0.07416623">
											<SimplePredicate field="float(standardScaler(housing_Tak))" operator="greaterOrEqual" value="0.042916715"/>
										</Node>
									</Node>
								</Node>
							</TreeModel>
						</Segment>
						<Segment id="58">
							<True/>
							<TreeModel functionName="regression" noTrueChildStrategy="returnLastPrediction" x-mathContext="float">
								<MiningSchema>
									<MiningField name="float(standardScaler(day_of_year))"/>
									<MiningField name="float(standardScaler(job_Pracownik zarządzający))"/>
									<MiningField name="float(standardScaler(housing_Tak))"/>
									<MiningField name="float(standardScaler(contact_Nie podano))"/>
									<MiningField name="float(standardScaler(poutcome_Porażka))"/>
								</MiningSchema>
								<Node score="0.040893704">
									<True/>
									<Node score="-0.123831145">
										<SimplePredicate field="float(standardScaler(contact_Nie podano))" operator="greaterOrEqual" value="0.7271795"/>
										<Node score="-0.08111983">
											<SimplePredicate field="float(standardScaler(job_Pracownik zarządzający))" operator="greaterOrEqual" value="0.6343186"/>
										</Node>
										<Node score="0.019146938">
											<SimplePredicate field="float(standardScaler(housing_Tak))" operator="greaterOrEqual" value="0.042916715"/>
										</Node>
									</Node>
									<Node score="-0.022676058">
										<SimplePredicate field="float(standardScaler(poutcome_Porażka))" operator="greaterOrEqual" value="1.2354923"/>
									</Node>
									<Node score="-0.016801717">
										<SimplePredicate field="float(standardScaler(day_of_year))" operator="greaterOrEqual" value="0.19620039"/>
									</Node>
								</Node>
							</TreeModel>
						</Segment>
						<Segment id="59">
							<True/>
							<TreeModel functionName="regression" noTrueChildStrategy="returnLastPrediction" x-mathContext="float">
								<MiningSchema>
									<MiningField name="float(standardScaler(log_duration))"/>
									<MiningField name="float(standardScaler(housing_Tak))"/>
									<MiningField name="float(standardScaler(contact_Nie podano))"/>
								</MiningSchema>
								<Node score="0.0045866976">
									<True/>
									<Node score="-0.07840461">
										<SimplePredicate field="float(standardScaler(contact_Nie podano))" operator="greaterOrEqual" value="0.7271795"/>
										<Node score="-0.1320798">
											<SimplePredicate field="float(standardScaler(housing_Tak))" operator="greaterOrEqual" value="0.042916715"/>
											<Node score="0.1177642">
												<SimplePredicate field="float(standardScaler(log_duration))" operator="greaterOrEqual" value="0.72615564"/>
											</Node>
										</Node>
									</Node>
								</Node>
							</TreeModel>
						</Segment>
						<Segment id="60">
							<True/>
							<TreeModel functionName="regression" noTrueChildStrategy="returnLastPrediction" x-mathContext="float">
								<MiningSchema>
									<MiningField name="float(standardScaler(day_of_year))"/>
								</MiningSchema>
								<Node score="-0.02880161">
									<True/>
									<Node score="0.12158707">
										<SimplePredicate field="float(standardScaler(day_of_year))" operator="greaterOrEqual" value="-0.32354522"/>
										<Node score="-0.0017848408">
											<SimplePredicate field="float(standardScaler(day_of_year))" operator="greaterOrEqual" value="-0.07001078"/>
										</Node>
									</Node>
									<Node score="-0.16784894">
										<SimplePredicate field="float(standardScaler(day_of_year))" operator="greaterOrEqual" value="-0.6024331"/>
										<Node score="-0.031129444">
											<SimplePredicate field="float(standardScaler(day_of_year))" operator="greaterOrEqual" value="-0.5136961"/>
										</Node>
									</Node>
									<Node score="0.21730958">
										<SimplePredicate field="float(standardScaler(day_of_year))" operator="greaterOrEqual" value="-0.7799072"/>
									</Node>
								</Node>
							</TreeModel>
						</Segment>
						<Segment id="61">
							<True/>
							<TreeModel functionName="regression" noTrueChildStrategy="returnLastPrediction" x-mathContext="float">
								<MiningSchema>
									<MiningField name="float(standardScaler(day_of_year))"/>
									<MiningField name="float(standardScaler(log_duration))"/>
								</MiningSchema>
								<Node score="0.070535585">
									<True/>
									<Node score="0.13140227">
										<SimplePredicate field="float(standardScaler(day_of_year))" operator="greaterOrEqual" value="-0.27283832"/>
										<Node score="-0.0012503986">
											<SimplePredicate field="float(standardScaler(day_of_year))" operator="greaterOrEqual" value="-0.07001078"/>
										</Node>
									</Node>
									<Node score="-0.13745138">
										<SimplePredicate field="float(standardScaler(day_of_year))" operator="greaterOrEqual" value="-0.8432908"/>
										<Node score="0.008653139">
											<SimplePredicate field="float(standardScaler(log_duration))" operator="greaterOrEqual" value="0.14310291"/>
										</Node>
									</Node>
									<Node score="-0.07773908">
										<SimplePredicate field="float(standardScaler(log_duration))" operator="greaterOrEqual" value="0.3887871"/>
									</Node>
								</Node>
							</TreeModel>
						</Segment>
						<Segment id="62">
							<True/>
							<TreeModel functionName="regression" noTrueChildStrategy="returnLastPrediction" x-mathContext="float">
								<MiningSchema>
									<MiningField name="float(standardScaler(log_duration))"/>
									<MiningField name="float(standardScaler(contact_Nie podano))"/>
								</MiningSchema>
								<Node score="0.0041581504">
									<True/>
									<Node score="0.035608146">
										<SimplePredicate field="float(standardScaler(log_duration))" operator="greaterOrEqual" value="1.0296112"/>
									</Node>
									<Node score="-0.07999821">
										<SimplePredicate field="float(standardScaler(contact_Nie podano))" operator="greaterOrEqual" value="0.7271795"/>
									</Node>
								</Node>
							</TreeModel>
						</Segment>
						<Segment id="63">
							<True/>
							<TreeModel functionName="regression" noTrueChildStrategy="returnLastPrediction" x-mathContext="float">
								<MiningSchema>
									<MiningField name="float(standardScaler(log_pdays))"/>
								</MiningSchema>
								<Node score="-0.0040548346">
									<True/>
									<Node score="0.037134107">
										<SimplePredicate field="float(standardScaler(log_pdays))" operator="greaterOrEqual" value="1.8691473"/>
									</Node>
									<Node score="-0.07987182">
										<SimplePredicate field="float(standardScaler(log_pdays))" operator="greaterOrEqual" value="1.7207012"/>
									</Node>
									<Node score="0.18084522">
										<SimplePredicate field="float(standardScaler(log_pdays))" operator="greaterOrEqual" value="1.7042885"/>
									</Node>
								</Node>
							</TreeModel>
						</Segment>
						<Segment id="64">
							<True/>
							<TreeModel functionName="regression" noTrueChildStrategy="returnLastPrediction" x-mathContext="float">
								<MiningSchema>
									<MiningField name="float(standardScaler(age))"/>
									<MiningField name="float(standardScaler(day_of_year))"/>
									<MiningField name="float(standardScaler(log_duration))"/>
								</MiningSchema>
								<Node score="-0.0062215063">
									<True/>
									<Node score="0.09102629">
										<SimplePredicate field="float(standardScaler(day_of_year))" operator="greaterOrEqual" value="1.9329113"/>
									</Node>
									<Node score="0.118709326">
										<SimplePredicate field="float(standardScaler(age))" operator="greaterOrEqual" value="1.5465453"/>
										<Node score="-0.18086015">
											<SimplePredicate field="float(standardScaler(log_duration))" operator="greaterOrEqual" value="0.6002865"/>
										</Node>
									</Node>
								</Node>
							</TreeModel>
						</Segment>
						<Segment id="65">
							<True/>
							<TreeModel functionName="regression" noTrueChildStrategy="returnLastPrediction" x-mathContext="float">
								<MiningSchema>
									<MiningField name="job_Samozatrudniony"/>
									<MiningField name="float(standardScaler(day_of_year))"/>
								</MiningSchema>
								<LocalTransformations>
									<DerivedField name="standardScaler(job_Samozatrudniony)" optype="continuous" dataType="double">
										<Apply function="/">
											<Apply function="-">
												<FieldRef field="job_Samozatrudniony"/>
												<Constant dataType="double">0.0359656981953155</Constant>
											</Apply>
											<Constant dataType="double">0.18620463675386545</Constant>
										</Apply>
									</DerivedField>
									<DerivedField name="float(standardScaler(job_Samozatrudniony))" optype="continuous" dataType="float">
										<FieldRef field="standardScaler(job_Samozatrudniony)"/>
									</DerivedField>
								</LocalTransformations>
								<Node score="-0.0032688244">
									<True/>
									<Node score="-0.058804844">
										<SimplePredicate field="float(standardScaler(job_Samozatrudniony))" operator="greaterOrEqual" value="2.4920664"/>
									</Node>
									<Node score="0.19897482">
										<SimplePredicate field="float(standardScaler(day_of_year))" operator="greaterOrEqual" value="1.5272563"/>
										<Node score="-0.01872412">
											<SimplePredicate field="float(standardScaler(day_of_year))" operator="greaterOrEqual" value="1.8631893"/>
										</Node>
									</Node>
								</Node>
							</TreeModel>
						</Segment>
						<Segment id="66">
							<True/>
							<TreeModel functionName="regression" noTrueChildStrategy="returnLastPrediction" x-mathContext="float">
								<MiningSchema>
									<MiningField name="float(standardScaler(day_of_year))"/>
									<MiningField name="float(standardScaler(housing_Tak))"/>
								</MiningSchema>
								<Node score="-0.040921357">
									<True/>
									<Node score="0.062691346">
										<SimplePredicate field="float(standardScaler(day_of_year))" operator="greaterOrEqual" value="-1.6672778"/>
										<Node score="-0.004095536">
											<SimplePredicate field="float(standardScaler(day_of_year))" operator="greaterOrEqual" value="-1.0714718"/>
										</Node>
										<Node score="0.33761328">
											<SimplePredicate field="float(standardScaler(housing_Tak))" operator="greaterOrEqual" value="0.042916715"/>
										</Node>
									</Node>
								</Node>
							</TreeModel>
						</Segment>
						<Segment id="67">
							<True/>
							<TreeModel functionName="regression" noTrueChildStrategy="returnLastPrediction" x-mathContext="float">
								<MiningSchema>
									<MiningField name="float(standardScaler(day_of_year))"/>
									<MiningField name="float(standardScaler(log_duration))"/>
									<MiningField name="float(standardScaler(log_pdays))"/>
									<MiningField name="float(standardScaler(contact_Nie podano))"/>
								</MiningSchema>
								<Node score="6.7353115E-4">
									<True/>
									<Node score="-0.037045784">
										<SimplePredicate field="float(standardScaler(day_of_year))" operator="greaterOrEqual" value="-0.7799072"/>
										<Node score="-0.1367116">
											<SimplePredicate field="float(standardScaler(contact_Nie podano))" operator="greaterOrEqual" value="0.7271795"/>
											<Node score="0.064093076">
												<SimplePredicate field="float(standardScaler(log_duration))" operator="greaterOrEqual" value="0.63831556"/>
											</Node>
										</Node>
										<Node score="0.037331987">
											<SimplePredicate field="float(standardScaler(log_duration))" operator="greaterOrEqual" value="-0.16950187"/>
										</Node>
									</Node>
									<Node score="0.046612717">
										<SimplePredicate field="float(standardScaler(log_pdays))" operator="greaterOrEqual" value="1.8691473"/>
									</Node>
									<Node score="-0.13816403">
										<SimplePredicate field="float(standardScaler(log_duration))" operator="greaterOrEqual" value="0.49017325"/>
									</Node>
								</Node>
							</TreeModel>
						</Segment>
						<Segment id="68">
							<True/>
							<TreeModel functionName="regression" noTrueChildStrategy="returnLastPrediction" x-mathContext="float">
								<MiningSchema>
									<MiningField name="float(standardScaler(day_of_year))"/>
									<MiningField name="float(standardScaler(housing_Tak))"/>
								</MiningSchema>
								<Node score="-0.016822418">
									<True/>
									<Node score="0.14496836">
										<SimplePredicate field="float(standardScaler(day_of_year))" operator="greaterOrEqual" value="-1.020765"/>
										<Node score="0.34705663">
											<SimplePredicate field="float(standardScaler(day_of_year))" operator="greaterOrEqual" value="-0.7799072"/>
											<Node score="-0.0020447613">
												<SimplePredicate field="float(standardScaler(day_of_year))" operator="greaterOrEqual" value="-0.6658167"/>
											</Node>
										</Node>
										<Node score="-0.21627219">
											<SimplePredicate field="float(standardScaler(housing_Tak))" operator="greaterOrEqual" value="0.042916715"/>
										</Node>
									</Node>
									<Node score="0.13317725">
										<SimplePredicate field="float(standardScaler(day_of_year))" operator="greaterOrEqual" value="-1.6672778"/>
									</Node>
								</Node>
							</TreeModel>
						</Segment>
						<Segment id="69">
							<True/>
							<TreeModel functionName="regression" noTrueChildStrategy="returnLastPrediction" x-mathContext="float">
								<MiningSchema>
									<MiningField name="float(standardScaler(log_duration))"/>
									<MiningField name="float(standardScaler(log_campaign))"/>
								</MiningSchema>
								<Node score="-0.0020650593">
									<True/>
									<Node score="0.095599644">
										<SimplePredicate field="float(standardScaler(log_duration))" operator="greaterOrEqual" value="1.7133598"/>
									</Node>
									<Node score="0.009132708">
										<SimplePredicate field="float(standardScaler(log_duration))" operator="greaterOrEqual" value="0.14310291"/>
									</Node>
									<Node score="-0.16419479">
										<SimplePredicate field="float(standardScaler(log_campaign))" operator="greaterOrEqual" value="1.2593877"/>
									</Node>
								</Node>
							</TreeModel>
						</Segment>
						<Segment id="70">
							<True/>
							<TreeModel functionName="regression" noTrueChildStrategy="returnLastPrediction" x-mathContext="float">
								<MiningSchema>
									<MiningField name="float(standardScaler(day_of_year))"/>
									<MiningField name="float(standardScaler(log_duration))"/>
								</MiningSchema>
								<Node score="-0.001299023">
									<True/>
									<Node score="0.07125277">
										<SimplePredicate field="float(standardScaler(day_of_year))" operator="greaterOrEqual" value="1.9329113"/>
									</Node>
									<Node score="0.03028712">
										<SimplePredicate field="float(standardScaler(log_duration))" operator="greaterOrEqual" value="1.0296112"/>
									</Node>
									<Node score="-0.17487328">
										<SimplePredicate field="float(standardScaler(day_of_year))" operator="greaterOrEqual" value="1.8948811"/>
									</Node>
								</Node>
							</TreeModel>
						</Segment>
						<Segment id="71">
							<True/>
							<TreeModel functionName="regression" noTrueChildStrategy="returnLastPrediction" x-mathContext="float">
								<MiningSchema>
									<MiningField name="float(standardScaler(day_of_year))"/>
									<MiningField name="float(standardScaler(log_campaign))"/>
								</MiningSchema>
								<Node score="-0.012351469">
									<True/>
									<Node score="0.08141817">
										<SimplePredicate field="float(standardScaler(day_of_year))" operator="greaterOrEqual" value="0.5194568"/>
										<Node score="-0.027998526">
											<SimplePredicate field="float(standardScaler(log_campaign))" operator="greaterOrEqual" value="-0.42271727"/>
										</Node>
									</Node>
									<Node score="-0.086597554">
										<SimplePredicate field="float(standardScaler(day_of_year))" operator="greaterOrEqual" value="0.20887712"/>
									</Node>
									<Node score="0.08484711">
										<SimplePredicate field="float(standardScaler(day_of_year))" operator="greaterOrEqual" value="-0.27283832"/>
									</Node>
								</Node>
							</TreeModel>
						</Segment>
						<Segment id="72">
							<True/>
							<TreeModel functionName="regression" noTrueChildStrategy="returnLastPrediction" x-mathContext="float">
								<MiningSchema>
									<MiningField name="float(standardScaler(age))"/>
									<MiningField name="float(standardScaler(day_of_year))"/>
								</MiningSchema>
								<Node score="0.028047198">
									<True/>
									<Node score="-0.22792147">
										<SimplePredicate field="float(standardScaler(day_of_year))" operator="greaterOrEqual" value="-0.8432908"/>
										<Node score="-0.12089689">
											<SimplePredicate field="float(standardScaler(age))" operator="greaterOrEqual" value="2.3031535"/>
										</Node>
										<Node score="0.0045418916">
											<SimplePredicate field="float(standardScaler(day_of_year))" operator="greaterOrEqual" value="-0.79258394"/>
										</Node>
									</Node>
								</Node>
							</TreeModel>
						</Segment>
						<Segment id="73">
							<True/>
							<TreeModel functionName="regression" noTrueChildStrategy="returnLastPrediction" x-mathContext="float">
								<MiningSchema>
									<MiningField name="float(standardScaler(day_of_year))"/>
									<MiningField name="float(standardScaler(log_campaign))"/>
								</MiningSchema>
								<Node score="0.0045095165">
									<True/>
									<Node score="-0.0066082524">
										<SimplePredicate field="float(standardScaler(day_of_year))" operator="greaterOrEqual" value="-0.6024331"/>
									</Node>
									<Node score="0.22118096">
										<SimplePredicate field="float(standardScaler(log_campaign))" operator="greaterOrEqual" value="1.2593877"/>
									</Node>
								</Node>
							</TreeModel>
						</Segment>
					</Segmentation>
				</MiningModel>
			</Segment>
			<Segment id="2">
				<True/>
